0.454102795042589,-4.20145672958696,-10.604062358344384,2.3817766485222815,0.7540751614603334,-10.059185111343231,-1.7001663388163692,-7.396661117100124,-21.55064916600529,-22.386649545626113,-22.209441448491432,-10.065289933606794,-0.4432070231572146,2.0253495846431315,1.2799679845223264,0.26422834480727225,0.21987869473848606,0.3290439325333872,-2.6746540782504606,-8.301022136964518,-13.711277792417471,-14.26846546393853,-23.004611271245263,-17.508269784501955,-6.4538169379019275,-3.278557929868893,-3.1101406478315177,-10.155609736195263,-18.234459921552617,-19.231977731869517,-24.48130849987665,-21.003098647300906,-7.390416809732802,-3.156050868488842,0.26880325243647196,0.3359961362249368,0.6965957438429118,-1.3920231469996893,-6.087023340924706,-13.097622970812855,-10.804647711591882,-21.813258550988685,-10.907119684004059,-3.5301180939431864,1.1281949079327889,1.1319197098088765
0.34651609206564377,-4.110508932743883,0.14051986250971313,1.8570026869501273,1.3114784194148497,-10.368160311927916,-7.219677113251021,-13.063718426640197,-18.824347549613815,-19.8508159077041,-11.985479923994543,-5.162118379764172,-1.041934175083285,0.4410319337669056,-0.7045466175819385,0.28123206447024707,1.1702126398163295,-0.786650233316454,-8.68066737977576,-9.27992271807466,-13.554984976283187,-14.897834026729637,-18.571537590467152,-5.496873191494071,-0.27284396260605986,-3.2426764310797123,-1.349532007884348,-7.371827979642591,-7.517247833628912,-9.35760336094456,-26.743950669850893,-25.130085323919083,-10.283130906204642,-6.038127011777762,-1.205330512654405,0.05512876180430447,0.5696243214110751,0.3266184955677086,-1.1918950746009884,-9.218511440139212,-5.342583002434273,-23.52638729508606,-13.276678881084068,-5.1994609986560985,0.8588532343044382,0.19796703290560155
0.13641150082643952,-3.9357842968248256,-11.669819553081844,14.751071764164447,-4.614035124916579,-14.453945854317606,-1.0851794169996647,-6.002031286108949,-21.14730600056132,-20.861559859084547,-23.255154343037397,-12.27512226921894,-7.198286412179256,-4.079643200308867,-0.2095367390281704,1.447280861139725,0.3956846567389927,-0.9273701809521522,-2.601661530209662,-7.087047302605529,-14.664746274345594,-13.270979485550322,-19.09632967494679,-17.134883347791618,-7.206792735471382,-3.184876003665278,-6.622052247655416,-13.701954765571017,-14.015810885464312,-15.73476460011777,-25.180850613152764,-20.432409653046925,-6.987872587489854,-2.303174083448239,-0.7161709269033368,0.11861272667012646,-0.5149807779197284,-5.465032983259958,-10.872515638036953,-15.33769825002329,-11.381550949946037,-22.520852991843938,-11.010168593842115,-1.039739382078192,2.978590805921339,1.305489377822962
0.1285151160328089,-3.508040259729726,-16.57671297442356,-1.0842389330524926,13.764675587368295,-10.892643602786512,-5.313821841498382,-10.594495157274036,-21.42661725756961,-22.326380313491484,-22.031500532127485,-9.154844190541217,3.791226312241412,3.667609170208068,1.2014597081724907,-0.045349414588624196,-0.22929495039563944,-0.7062461139562156,-6.271162863178738,-12.191515299686689,-13.549719752925498,-14.38026274698842,-23.67868499454681,-16.90304505026888,-6.041128950157969,-1.9946504902843294,-2.443449045773883,-8.242671668995788,-20.109416734102066,-17.178721331818544,-23.456590641828345,-19.062487472488908,-10.983697537744359,-7.06246206344339,-4.034939819976669,0.7577552507717278,-0.5691828792655429,-1.538482337011721,-5.744184897138334,-14.12951851157163,-7.735522535521901,-17.886200909634557,-10.456048266499357,-5.884390913796551,-2.6352919715114385,0.2109031231769961
0.4071978081023116,-2.949401276493231,-11.08035093091769,3.8929915770239094,-0.08733118235987888,-2.0146045481343813,-0.39510119604661303,-4.6648667786490075,-14.841804618057676,-15.928712421214785,-23.488798931112864,-13.728606485610177,-0.127712754215896,0.9915641227586218,0.11039213549089873,-0.29433476198536124,-0.20785808470192374,0.13595409406402545,-2.2048142159268957,-2.3736711099507137,-6.8054038787854925,-7.368933576848044,-25.01904522990923,-22.14921309951747,-9.27353656849883,-4.047299169481547,-9.555661338073833,-13.617312603288427,-16.91779416641351,-18.904881089700186,-21.165931730680658,-10.733140604865193,-4.958918916833418,-3.0933457811372436,-0.832515660946147,1.1186687574741265,-0.034152262110853954,-6.371465153131356,-7.824168122394006,-9.354386265542194,-12.013421916539272,-11.8083173392382,-5.254984128234309,-0.04913584401289692,-0.671437503764415,0.3693781805224533
