2.3040791933876217,-23.54888307911175,-4.858049173551105,-3.4562525356507394,-1.8732998015867448,-7.153804394753682,0.1126407745206026,-0.7160722847961767,-5.521832669117765,-6.101582983810115,-32.22233054280079,-33.18092664028663,0.019063968844510778,0.0018879314284060691,-0.20051477673333096,0.21575566051924683,0.2826102323458641,0.12247863067071084,-0.21692587965470156,-0.8075190642178176,-6.734775179420441,-6.477821468586205,-11.354981840744346,-11.596828052872032,-0.48564842611683195,-0.5580473694964077,-0.4392473734436504,-0.4169470460399768,-11.271797612656192,-11.20917832911593,-4.920976357092172,-4.668636391140244,-0.37460891782596856,-0.3955664025342822,-0.3073403431276702,-0.16419446011261873,0.10974853766672181,-0.295402333416795,-4.031517276904499,-31.966946123734555,-32.28133176234396,-5.43298369894373,-6.677153728908027,-0.3725134041586807,-0.0816441450019136,-0.22222799671107146
2.3362359330137155,-19.655259350501257,6.272049434714072,-11.148315709037746,-3.825413580215199,-13.654418237265112,0.9274563060454247,0.65214305523101,-3.350120183316028,-12.948897035206896,-34.180337459818915,-35.01805906318337,0.3413803857354681,-2.201386455263803,-1.8523918576384522,0.20629652476637295,1.9723452987911696,1.5594134269649618,1.0567110268166209,0.44408332748913926,-6.201320406435276,-6.049307864809408,-13.384522610807718,-13.687976064878486,-2.3196845205588073,0.015265864767765121,-0.48116096531073227,-0.3960676570314467,-10.0362101870231,-9.955333404422001,-6.41131148615717,-6.199469945394533,-1.2251369024383525,-1.1704207262719888,-0.4806785996170718,-0.3539094069693211,-0.5151420458239959,-0.6680771328529972,-7.507063410754619,-32.229712529070035,-32.52827880905223,-5.534629385593174,-6.771330947614814,-0.7306582547216238,-0.14761092830630568,-0.6767140679916888
2.286608990344948,-19.523971171602504,-10.819987649655149,7.216858043040723,-5.423146325568784,-8.689455299687705,0.12134794117727124,-2.1773923637132038,-5.965500269926314,-5.008522153826841,-31.95186980146615,-32.80477926109218,-8.48802531372654,3.079254278736238,2.1817400026184606,2.066208158318052,0.37316932955816356,-1.5818694245789535,-2.1775083816014145,-2.391135140127961,-8.021084915177669,-7.743970065297766,-11.195609417648122,-11.814442875798253,1.1904270988937489,0.9854766830743569,-0.8805622188921245,-1.3136843122573134,-12.054362768406355,-11.939252053430097,-4.316124228429007,-3.9945014705664565,-0.6307581786353413,-0.49616220985154674,-0.19882383250334887,-0.4505760528163505,-0.34040441630762713,-0.3638074844497181,-4.103688150272921,-34.54231409297846,-34.77801851638638,-3.866075761135019,-4.971578994208505,-1.152911781739848,-0.5317534424001024,-0.38809240113967847
2.256728267095171,-19.826012520741365,-6.810861204467828,-6.65954809938598,8.265048742361996,-13.397547757870813,-0.40404636209191086,-1.1260833216959791,-5.2907839916950135,-5.691318292451727,-33.09535417059196,-34.01607297444123,0.7832040530237823,-0.3093711391050416,-0.5791334213111137,-0.5905978483633252,-0.47426823085205216,-0.5563304568990445,-0.8899156450294069,-1.3930226024617487,-7.733250533094972,-7.587813393781556,-10.407294827615212,-10.7909189418801,-0.6992198708668823,-0.6098844044229697,-0.048205073965698925,-2.484072625893847,-13.0623984015061,-13.101799120444428,-4.752198802895042,-4.2830152532383705,0.05354245293943555,1.0485911765230087,1.4419796152248239,0.7428189150696288,-1.5974032856453053,-2.282352736252579,-1.6209073603709947,-33.89418359671915,-34.09308037117553,-11.790386598416708,-5.292024833129192,0.736524464211948,1.2160445281137344,1.594874096624026
2.337182019778385,-21.311958118833527,-10.273365075347062,-4.892923760197228,-10.89950148486324,4.4528864251065325,-0.4838322345554978,-0.999683085978998,-4.173308868893515,-6.615960596667997,-35.46450193313274,-36.365708234238724,-0.005946534549073671,-0.25686973400836954,-0.3775958020946763,-0.1615407857597202,0.003822471439916316,-0.0805014674669959,-0.44069143842071856,-1.0034047727579198,-5.384912002893753,-5.228481896267766,-11.683308484752615,-12.073406889670945,-1.2305762223140528,-0.7799635446567672,1.1700386184682823,1.6203522616132169,-11.902149772966377,-11.644164135374874,-5.623384256035737,-5.847660243718593,-2.0964650545018855,-2.0518938731887997,-0.6065221041334693,1.4834771929807953,2.21138124672044,2.898157110171187,-11.76684663345329,-31.00824651983035,-31.151176251297663,-6.400892816326648,-7.855446463410221,-2.1609949512059092,-2.003606299928847,-0.06145007293395189
