6.6643478074176805,-22.4013205448164,-4.1935719245102465,-4.064412835813508,-3.905352100782682,-4.2359262137909655,-1.2485318190452606,-5.25317729672429,4.506567398947744,-10.240946650802838,-0.351310522644954,-0.9222323001445318,-1.2982815922685493,0.910763988589021,-1.5006734100141,-2.3130127735290102,-0.6435763369243396,-0.2731768077403893,0.21842208190088108,0.3347095444429717,0.48171422839556693,0.19400989456748804,-0.37187824765959554,-0.5645081674048507,-4.592248053962325,-4.363527396737326,3.131288705372581,2.2808072988057626,-0.7000036397182648,-0.5447480988529853,-0.12284148732220294,-0.6971328887564329,2.617236297767012,3.254092216933942,1.235881223255945,-1.2067895629245726,-0.505911501151339,-0.2803404579122035,0.12685169073447503,0.04996682356439486,-0.05538279613346174,-0.4180548699801417,-0.7219354488295848,-2.8235399416477622,-0.9088441993924413,-4.655024245554057,-4.860965085225369,-0.596067739674812,-0.28581994568532343,-0.021022425059871563
6.132249714006253,-19.765626512043045,28.707249744015115,-14.688842885624373,-10.210425070373413,-9.960321480749936,-10.805532325559914,-10.421362226046098,-3.419130563426321,-16.249683389818387,0.6422777175387402,6.070484051009965,0.8450947046111768,-5.491689498864788,-2.9981321265478833,-14.342515449561613,-2.479057742047036,-2.297019605299642,-1.6931537768437277,-0.07410701634977078,1.573940705213708,0.8129838658337079,0.25131988606203975,3.5501961665520043,-3.714744396799544,-5.634338941027774,-0.23331366260988792,-13.387461870811531,-2.536788330850721,-0.2420630017471242,-1.105651511905535,-0.7078439885026886,-1.0413414107330314,0.09204844948261418,-3.4885356300397072,-3.629585648513682,-1.3680531929613589,-1.2836668370511395,-0.8173875264974756,-0.7745063001209783,-0.744453346897997,-1.2534516999645058,-1.2412409250811565,-4.272260912477505,-3.5730000950897565,-6.5617674814864495,-6.46275616731369,-1.2532356950594172,-0.8676383734715578,-1.018503043702637
6.268378480734986,-19.920135412726236,-15.185846610353773,29.009208901155326,-10.333942761591222,-10.157572769334523,-6.90939249004017,-13.518219618991031,-7.8173759833686125,-14.419595745844761,-0.2462056043083199,-2.8213285206225125,-14.13684536227221,-1.726623551317761,-6.369947562213789,-1.1507759795014516,4.876098019792906,0.5921850243647457,0.7419129438380337,1.3883372263982232,0.3555594189553237,-1.8555962752674384,-2.188542310380839,-2.6356131344372304,-14.624993410103729,-5.223650930016392,-6.106676741207567,2.0711603842899797,6.551517317626767,0.4666389159354926,-1.1836315908757888,-1.5063470644844983,-2.109007227468193,-2.3858628447493846,-1.0838498234820584,-2.5114106202919406,-0.9638163102033828,-0.8149023434742427,-0.6403166345822103,-0.8667860271702501,-0.9120194608834881,-1.169557365679766,-1.2144755799767724,-4.902011910201482,-4.7719390893393,-5.607961119767788,-6.102747034334181,-1.351833403955091,-1.0210395161512664,-0.9478960374574872
6.239060935642559,-19.85978924504628,-10.547135175103868,-10.273700120302484,28.7046208517479,-14.86228295789631,-9.819111443008186,-10.486924291049684,-3.608845433480368,-16.90871700952083,-1.0985147713090089,-1.5288730466604497,-3.763831586700701,-3.395042154629394,-3.3838634699198944,-4.147280604732033,-0.9781316819603373,-1.1130942949383529,-0.9500413566635069,-0.6699790906082468,-0.47722654650631113,-0.6876233484281903,-1.3843599883402873,-1.271752540135722,-6.2540127230960785,-6.400733712921933,-0.26606055442835863,-1.5210932169970948,-1.1774508683009666,-1.0256409831064621,-0.28936701660036485,-2.6669405445868795,-13.396527388926968,0.3486095443003214,-4.5473207250016126,0.12525633231862826,5.326649567604936,0.3875832283813957,0.9565816925458388,0.5144321401793563,-1.4484131961860733,-2.4969079669590526,-2.751901862947466,-14.556716713914723,-2.955531147900796,-6.344742710708095,-3.4119131574679664,4.397692684892143,0.5248953549258825,0.8217990773550717
6.267238461249395,-19.88337262019974,-9.89809895361466,-10.315385081081873,-14.923754303730076,28.758932628593183,-6.6832516673794915,-13.476338625647344,-7.322677647270699,-14.020639570311829,-0.9772549897985988,-1.4781976861411579,-3.055829694587608,-2.1048629808764616,-4.7380868383777175,-4.8397380555214236,-1.0400621418096878,-1.0239858816338945,-0.6931048072461249,-0.5994646558106955,-0.5328024773825217,-0.6480091958320986,-0.9474837818108061,-0.9791788555184314,-5.689217115230861,-5.154683249920818,-2.115172637986951,-2.365547236847417,-1.4034351995055334,-1.2116080851237172,0.7015453168384669,6.935431369386731,1.9011578480634745,-4.8409600374025255,-1.312678966736015,-13.360487697244617,-2.3238392112504958,-2.16891454732028,-0.5820881739486754,0.8326859280889641,0.9379685450558166,0.5143478846281713,5.251308540942738,-1.1502061319359316,-7.715503326878687,-5.976658589777926,-14.796329720549824,-2.5104377424578463,-2.003536754099526,0.0797104736088447
